Language model created by QuickLM on Sat Oct 17 11:03:19 EDT 2020
Copyright (c) 1996-2010 Carnegie Mellon University and Alexander I. Rudnicky

The model is in standard ARPA format, designed by Doug Paul while he was at MITRE.

The code that was used to produce this language model is available in Open Source.
Please visit http://www.speech.cs.cmu.edu/tools/ for more information

The (fixed) discount mass is 0.5. The backoffs are computed using the ratio method.
This model based on a corpus of 6 sentences and 8 words

\data\
ngram 1=8
ngram 2=12
ngram 3=6

\1-grams:
-0.7782 </s> -0.3010
-0.7782 <s> -0.2218
-1.5563 DOWN -0.2218
-1.5563 LEFT -0.2218
-1.5563 RIGHT -0.2218
-1.5563 SLEEP -0.2218
-1.5563 UP -0.2218
-1.5563 WAKE -0.2218

\2-grams:
-1.0792 <s> DOWN 0.0000
-1.0792 <s> LEFT 0.0000
-1.0792 <s> RIGHT 0.0000
-1.0792 <s> SLEEP 0.0000
-1.0792 <s> UP 0.0000
-1.0792 <s> WAKE 0.0000
-0.3010 DOWN </s> -0.3010
-0.3010 LEFT </s> -0.3010
-0.3010 RIGHT </s> -0.3010
-0.3010 SLEEP </s> -0.3010
-0.3010 UP </s> -0.3010
-0.3010 WAKE </s> -0.3010

\3-grams:
-0.3010 <s> DOWN </s>
-0.3010 <s> LEFT </s>
-0.3010 <s> RIGHT </s>
-0.3010 <s> SLEEP </s>
-0.3010 <s> UP </s>
-0.3010 <s> WAKE </s>

\end\
